<?xml version="1.0"?>
<opencv_storage>
<cascade>
  <stageType>BOOST</stageType>
  <featureType>HAAR</featureType>
  <height>50</height>
  <width>50</width>
  <stageParams>
    <boostType>GAB</boostType>
    <minHitRate>9.9500000476837158e-01</minHitRate>
    <maxFalseAlarm>5.0000000000000000e-01</maxFalseAlarm>
    <weightTrimRate>9.4999999999999996e-01</weightTrimRate>
    <maxDepth>1</maxDepth>
    <maxWeakCount>100</maxWeakCount></stageParams>
  <featureParams>
    <maxCatCount>0</maxCatCount>
    <featSize>1</featSize>
    <mode>BASIC</mode></featureParams>
  <stageNum>10</stageNum>
  <stages>
    <!-- stage 0 -->
    <_>
      <maxWeakCount>10</maxWeakCount>
      <stageThreshold>-7.9763209819793701e-01</stageThreshold>
      <weakClassifiers>
        <_>
          <internalNodes>
            0 -1 106 8.5112862288951874e-03</internalNodes>
          <leafValues>
            -2.9670330882072449e-01 7.1812081336975098e-01</leafValues></_>
        <_>
          <internalNodes>
            0 -1 40 -1.0908353142440319e-03</internalNodes>
          <leafValues>
            4.0461134910583496e-01 -3.8200032711029053e-01</leafValues></_>
        <_>
          <internalNodes>
            0 -1 12 -5.9771481901407242e-03</internalNodes>
          <leafValues>
            5.8061373233795166e-01 -2.5058171153068542e-01</leafValues></_>
        <_>
          <internalNodes>
            0 -1 65 3.6556306295096874e-03</internalNodes>
          <leafValues>
            -3.0810594558715820e-01 4.5639783143997192e-01</leafValues></_>
        <_>
          <internalNodes>
            0 -1 127 3.5867658443748951e-03</internalNodes>
          <leafValues>
            -2.3752440512180328e-01 6.9264459609985352e-01</leafValues></_>
        <_>
          <internalNodes>
            0 -1 134 1.6530567081645131e-03</internalNodes>
          <leafValues>
            -3.6162215471267700e-01 4.6992111206054688e-01</leafValues></_>
        <_>
          <internalNodes>
            0 -1 48 -6.6851003793999553e-04</internalNodes>
          <leafValues>
            4.9405223131179810e-01 -3.2747539877891541e-01</leafValues></_>
        <_>
          <internalNodes>
            0 -1 13 -4.6726077562198043e-04</internalNodes>
          <leafValues>
            3.2570627331733704e-01 -3.6803343892097473e-01</leafValues></_>
        <_>
          <internalNodes>
            0 -1 80 -1.1984648182988167e-02</internalNodes>
          <leafValues>
            5.3038126230239868e-01 -2.1894726157188416e-01</leafValues></_>
        <_>
          <internalNodes>
            0 -1 76 3.0673164874315262e-03</internalNodes>
          <leafValues>
            -2.9149329662322998e-01 4.0140104293823242e-01</leafValues></_></weakClassifiers></_>
    <!-- stage 1 -->
    <_>
      <maxWeakCount>15</maxWeakCount>
      <stageThreshold>-9.8325806856155396e-01</stageThreshold>
      <weakClassifiers>
        <_>
          <internalNodes>
            0 -1 109 7.2686653584241867e-03</internalNodes>
          <leafValues>
            -1.9431279599666595e-01 6.1953729391098022e-01</leafValues></_>
        <_>
          <internalNodes>
            0 -1 1 -3.3186832442879677e-03</internalNodes>
          <leafValues>
            6.0657799243927002e-01 -1.8245378136634827e-01</leafValues></_>
        <_>
          <internalNodes>
            0 -1 24 -3.9190798997879028e-03</internalNodes>
          <leafValues>
            4.2205145955085754e-01 -2.4834588170051575e-01</leafValues></_>
        <_>
          <internalNodes>
            0 -1 60 -1.0997062548995018e-02</internalNodes>
          <leafValues>
            5.7345294952392578e-01 -2.6011520624160767e-01</leafValues></_>
        <_>
          <internalNodes>
            0 -1 43 3.9062732830643654e-03</internalNodes>
          <leafValues>
            -2.0315873622894287e-01 5.4013997316360474e-01</leafValues></_>
        <_>
          <internalNodes>
            0 -1 141 1.2881512520834804e-03</internalNodes>
          <leafValues>
            -2.6864159107208252e-01 4.1206127405166626e-01</leafValues></_>
        <_>
          <internalNodes>
            0 -1 41 -6.1504766345024109e-03</internalNodes>
          <leafValues>
            4.3943506479263306e-01 -2.4609047174453735e-01</leafValues></_>
        <_>
          <internalNodes>
            0 -1 117 1.3370951637625694e-03</internalNodes>
          <leafValues>
            -2.4685382843017578e-01 3.9508309960365295e-01</leafValues></_>
        <_>
          <internalNodes>
            0 -1 151 1.5652161091566086e-03</internalNodes>
          <leafValues>
            -1.6457113623619080e-01 6.2952518463134766e-01</leafValues></_>
        <_>
          <internalNodes>
            0 -1 64 -4.3913931585848331e-03</internalNodes>
          <leafValues>
            3.1137228012084961e-01 -3.0329576134681702e-01</leafValues></_>
        <_>
          <internalNodes>
            0 -1 108 4.3667159043252468e-03</internalNodes>
          <leafValues>
            1.5821407735347748e-01 -5.2694219350814819e-01</leafValues></_>
        <_>
          <internalNodes>
            0 -1 18 7.0562986657023430e-03</internalNodes>
          <leafValues>
            -1.7274478077888489e-01 5.0460517406463623e-01</leafValues></_>
        <_>
          <internalNodes>
            0 -1 74 1.5045650303363800e-02</internalNodes>
          <leafValues>
            -1.2956534326076508e-01 7.0133841037750244e-01</leafValues></_>
        <_>
          <internalNodes>
            0 -1 84 1.6792373731732368e-02</internalNodes>
          <leafValues>
            -1.6225539147853851e-01 5.2491211891174316e-01</leafValues></_>
        <_>
          <internalNodes>
            0 -1 143 5.4249068489298224e-04</internalNodes>
          <leafValues>
            1.5668512880802155e-01 -6.5076422691345215e-01</leafValues></_></weakClassifiers></_>
    <!-- stage 2 -->
    <_>
      <maxWeakCount>8</maxWeakCount>
      <stageThreshold>-6.1123883724212646e-01</stageThreshold>
      <weakClassifiers>
        <_>
          <internalNodes>
            0 -1 82 -5.4314127191901207e-03</internalNodes>
          <leafValues>
            7.2448980808258057e-01 -4.2483661323785782e-02</leafValues></_>
        <_>
          <internalNodes>
            0 -1 72 -8.0790920183062553e-03</internalNodes>
          <leafValues>
            5.9275656938552856e-01 -2.2698803246021271e-01</leafValues></_>
        <_>
          <internalNodes>
            0 -1 51 -7.7334936941042542e-04</internalNodes>
          <leafValues>
            5.2433758974075317e-01 -3.3075112104415894e-01</leafValues></_>
        <_>
          <internalNodes>
            0 -1 142 1.3149457518011332e-03</internalNodes>
          <leafValues>
            -2.9017767310142517e-01 5.3852754831314087e-01</leafValues></_>
        <_>
          <internalNodes>
            0 -1 125 -6.9936593063175678e-03</internalNodes>
          <leafValues>
            3.7888538837432861e-01 -4.1521209478378296e-01</leafValues></_>
        <_>
          <internalNodes>
            0 -1 25 -2.9125725850462914e-03</internalNodes>
          <leafValues>
            4.6557694673538208e-01 -3.0600497126579285e-01</leafValues></_>
        <_>
          <internalNodes>
            0 -1 70 3.4249556483700871e-04</internalNodes>
          <leafValues>
            -2.5422349572181702e-01 5.6871193647384644e-01</leafValues></_>
        <_>
          <internalNodes>
            0 -1 59 -1.1972197098657489e-03</internalNodes>
          <leafValues>
            5.2335095405578613e-01 -2.8395316004753113e-01</leafValues></_></weakClassifiers></_>
    <!-- stage 3 -->
    <_>
      <maxWeakCount>11</maxWeakCount>
      <stageThreshold>-4.5019343495368958e-01</stageThreshold>
      <weakClassifiers>
        <_>
          <internalNodes>
            0 -1 121 4.2306026443839073e-03</internalNodes>
          <leafValues>
            -8.6725667119026184e-02 7.0708662271499634e-01</leafValues></_>
        <_>
          <internalNodes>
            0 -1 49 4.2266859672963619e-03</internalNodes>
          <leafValues>
            -2.3480297625064850e-01 6.0323482751846313e-01</leafValues></_>
        <_>
          <internalNodes>
            0 -1 75 -6.5362993627786636e-03</internalNodes>
          <leafValues>
            6.9867312908172607e-01 -2.3836597800254822e-01</leafValues></_>
        <_>
          <internalNodes>
            0 -1 54 -5.6955050677061081e-03</internalNodes>
          <leafValues>
            6.5712481737136841e-01 -2.5804504752159119e-01</leafValues></_>
        <_>
          <internalNodes>
            0 -1 4 -5.8605903759598732e-03</internalNodes>
          <leafValues>
            6.8042838573455811e-01 -2.2540414333343506e-01</leafValues></_>
        <_>
          <internalNodes>
            0 -1 99 1.2069176882505417e-02</internalNodes>
          <leafValues>
            -1.8683540821075439e-01 7.3604530096054077e-01</leafValues></_>
        <_>
          <internalNodes>
            0 -1 96 -1.0990908369421959e-02</internalNodes>
          <leafValues>
            5.1429682970046997e-01 -3.0836582183837891e-01</leafValues></_>
        <_>
          <internalNodes>
            0 -1 87 -1.3441342860460281e-02</internalNodes>
          <leafValues>
            8.4407138824462891e-01 -1.8160153925418854e-01</leafValues></_>
        <_>
          <internalNodes>
            0 -1 69 1.1989198625087738e-02</internalNodes>
          <leafValues>
            -2.1041409671306610e-01 6.7880785465240479e-01</leafValues></_>
        <_>
          <internalNodes>
            0 -1 138 1.4009524602442980e-04</internalNodes>
          <leafValues>
            2.4733352661132812e-01 -7.2683745622634888e-01</leafValues></_>
        <_>
          <internalNodes>
            0 -1 29 2.7480283752083778e-03</internalNodes>
          <leafValues>
            -2.9526296257972717e-01 5.7535469532012939e-01</leafValues></_></weakClassifiers></_>
    <!-- stage 4 -->
    <_>
      <maxWeakCount>19</maxWeakCount>
      <stageThreshold>-8.2103818655014038e-01</stageThreshold>
      <weakClassifiers>
        <_>
          <internalNodes>
            0 -1 111 2.2646442812401801e-04</internalNodes>
          <leafValues>
            -3.0805686116218567e-01 4.7017189860343933e-01</leafValues></_>
        <_>
          <internalNodes>
            0 -1 79 -6.1055561527609825e-03</internalNodes>
          <leafValues>
            3.7318614125251770e-01 -2.5079980492591858e-01</leafValues></_>
        <_>
          <internalNodes>
            0 -1 30 -2.8768521733582020e-03</internalNodes>
          <leafValues>
            4.4369140267372131e-01 -1.8357126414775848e-01</leafValues></_>
        <_>
          <internalNodes>
            0 -1 47 -3.1686085276305676e-03</internalNodes>
          <leafValues>
            4.9528089165687561e-01 -1.5765537321567535e-01</leafValues></_>
        <_>
          <internalNodes>
            0 -1 20 -8.0993375740945339e-04</internalNodes>
          <leafValues>
            3.4037938714027405e-01 -2.4693803489208221e-01</leafValues></_>
        <_>
          <internalNodes>
            0 -1 135 -5.2735343342646956e-04</internalNodes>
          <leafValues>
            -7.5902473926544189e-01 8.8522784411907196e-02</leafValues></_>
        <_>
          <internalNodes>
            0 -1 15 -8.3202300593256950e-03</internalNodes>
          <leafValues>
            3.9882734417915344e-01 -2.1263588964939117e-01</leafValues></_>
        <_>
          <internalNodes>
            0 -1 7 -2.2378796711564064e-03</internalNodes>
          <leafValues>
            3.9479076862335205e-01 -1.9797873497009277e-01</leafValues></_>
        <_>
          <internalNodes>
            0 -1 62 -4.9760186811909080e-04</internalNodes>
          <leafValues>
            3.0558350682258606e-01 -2.5936281681060791e-01</leafValues></_>
        <_>
          <internalNodes>
            0 -1 146 -6.3880300149321556e-03</internalNodes>
          <leafValues>
            4.2370349168777466e-01 -1.9212839007377625e-01</leafValues></_>
        <_>
          <internalNodes>
            0 -1 97 8.5144322365522385e-03</internalNodes>
          <leafValues>
            -2.7338662743568420e-01 2.9783865809440613e-01</leafValues></_>
        <_>
          <internalNodes>
            0 -1 147 -9.1718575276900083e-05</internalNodes>
          <leafValues>
            3.4609958529472351e-01 -2.3698312044143677e-01</leafValues></_>
        <_>
          <internalNodes>
            0 -1 58 6.8364962935447693e-03</internalNodes>
          <leafValues>
            -1.6994385421276093e-01 5.0352567434310913e-01</leafValues></_>
        <_>
          <internalNodes>
            0 -1 136 -1.8251975416205823e-04</internalNodes>
          <leafValues>
            -6.9570547342300415e-01 1.3478703796863556e-01</leafValues></_>
        <_>
          <internalNodes>
            0 -1 81 4.9572642892599106e-03</internalNodes>
          <leafValues>
            -2.5074547529220581e-01 3.1417241692543030e-01</leafValues></_>
        <_>
          <internalNodes>
            0 -1 104 -2.8284275322221220e-04</internalNodes>
          <leafValues>
            3.1566932797431946e-01 -2.5590744614601135e-01</leafValues></_>
        <_>
          <internalNodes>
            0 -1 94 -7.0831447374075651e-04</internalNodes>
          <leafValues>
            2.3704995214939117e-01 -3.5394230484962463e-01</leafValues></_>
        <_>
          <internalNodes>
            0 -1 19 -1.2079444713890553e-02</internalNodes>
          <leafValues>
            3.9266812801361084e-01 -2.0120155811309814e-01</leafValues></_>
        <_>
          <internalNodes>
            0 -1 100 -5.4473988711833954e-04</internalNodes>
          <leafValues>
            3.1034988164901733e-01 -2.7014473080635071e-01</leafValues></_></weakClassifiers></_>
    <!-- stage 5 -->
    <_>
      <maxWeakCount>22</maxWeakCount>
      <stageThreshold>-6.1172133684158325e-01</stageThreshold>
      <weakClassifiers>
        <_>
          <internalNodes>
            0 -1 119 5.6302133016288280e-03</internalNodes>
          <leafValues>
            4.6176761388778687e-01 -3.3678755164146423e-01</leafValues></_>
        <_>
          <internalNodes>
            0 -1 139 -2.1887568291276693e-03</internalNodes>
          <leafValues>
            4.7404870390892029e-01 -1.6303178668022156e-01</leafValues></_>
        <_>
          <internalNodes>
            0 -1 92 -2.5045182555913925e-03</internalNodes>
          <leafValues>
            3.1287899613380432e-01 -2.5871738791465759e-01</leafValues></_>
        <_>
          <internalNodes>
            0 -1 129 2.0973668433725834e-03</internalNodes>
          <leafValues>
            -2.6146614551544189e-01 2.6880219578742981e-01</leafValues></_>
        <_>
          <internalNodes>
            0 -1 34 -6.4162220805883408e-03</internalNodes>
          <leafValues>
            4.8627626895904541e-01 -1.6294039785861969e-01</leafValues></_>
        <_>
          <internalNodes>
            0 -1 86 -6.9148559123277664e-03</internalNodes>
          <leafValues>
            5.6968605518341064e-01 -1.3664028048515320e-01</leafValues></_>
        <_>
          <internalNodes>
            0 -1 23 -3.8033998571336269e-03</internalNodes>
          <leafValues>
            2.4846549332141876e-01 -3.0150207877159119e-01</leafValues></_>
        <_>
          <internalNodes>
            0 -1 52 -2.2405553609132767e-03</internalNodes>
          <leafValues>
            2.5373074412345886e-01 -2.5917255878448486e-01</leafValues></_>
        <_>
          <internalNodes>
            0 -1 61 -4.4821137562394142e-03</internalNodes>
          <leafValues>
            3.8570719957351685e-01 -1.8124309182167053e-01</leafValues></_>
        <_>
          <internalNodes>
            0 -1 0 1.2612575665116310e-02</internalNodes>
          <leafValues>
            -1.4059185981750488e-01 5.3486806154251099e-01</leafValues></_>
        <_>
          <internalNodes>
            0 -1 73 -2.8905277140438557e-03</internalNodes>
          <leafValues>
            2.9935875535011292e-01 -2.5684756040573120e-01</leafValues></_>
        <_>
          <internalNodes>
            0 -1 57 1.6589445294812322e-05</internalNodes>
          <leafValues>
            -3.4639233350753784e-01 2.2355072200298309e-01</leafValues></_>
        <_>
          <internalNodes>
            0 -1 133 4.2489360203035176e-04</internalNodes>
          <leafValues>
            1.7920106649398804e-01 -4.2433390021324158e-01</leafValues></_>
        <_>
          <internalNodes>
            0 -1 102 1.6633087943773717e-04</internalNodes>
          <leafValues>
            1.3294114172458649e-01 -5.2251881361007690e-01</leafValues></_>
        <_>
          <internalNodes>
            0 -1 32 -1.0575511259958148e-04</internalNodes>
          <leafValues>
            2.4327702820301056e-01 -2.9283338785171509e-01</leafValues></_>
        <_>
          <internalNodes>
            0 -1 90 -3.5610813647508621e-03</internalNodes>
          <leafValues>
            5.9493428468704224e-01 -1.4287997782230377e-01</leafValues></_>
        <_>
          <internalNodes>
            0 -1 156 -3.7422834429889917e-04</internalNodes>
          <leafValues>
            3.4800136089324951e-01 -2.2269362211227417e-01</leafValues></_>
        <_>
          <internalNodes>
            0 -1 154 -5.1266653463244438e-04</internalNodes>
          <leafValues>
            3.9455732703208923e-01 -1.7691175639629364e-01</leafValues></_>
        <_>
          <internalNodes>
            0 -1 118 -2.6711501413956285e-04</internalNodes>
          <leafValues>
            -4.1323661804199219e-01 1.7071373760700226e-01</leafValues></_>
        <_>
          <internalNodes>
            0 -1 21 8.9167244732379913e-03</internalNodes>
          <leafValues>
            -1.2900494039058685e-01 5.4067331552505493e-01</leafValues></_>
        <_>
          <internalNodes>
            0 -1 26 -1.5160918701440096e-04</internalNodes>
          <leafValues>
            -5.9663343429565430e-01 1.3265064358711243e-01</leafValues></_>
        <_>
          <internalNodes>
            0 -1 71 -6.6553836222738028e-04</internalNodes>
          <leafValues>
            3.7781554460525513e-01 -2.0304362475872040e-01</leafValues></_></weakClassifiers></_>
    <!-- stage 6 -->
    <_>
      <maxWeakCount>15</maxWeakCount>
      <stageThreshold>-5.9470582008361816e-01</stageThreshold>
      <weakClassifiers>
        <_>
          <internalNodes>
            0 -1 105 8.4776788949966431e-02</internalNodes>
          <leafValues>
            3.9506173133850098e-01 -7.2727274894714355e-01</leafValues></_>
        <_>
          <internalNodes>
            0 -1 68 -6.6188499331474304e-03</internalNodes>
          <leafValues>
            4.4280338287353516e-01 -1.7866605520248413e-01</leafValues></_>
        <_>
          <internalNodes>
            0 -1 126 3.8545960560441017e-03</internalNodes>
          <leafValues>
            -1.4313234388828278e-01 5.4640167951583862e-01</leafValues></_>
        <_>
          <internalNodes>
            0 -1 83 -1.3863297179341316e-02</internalNodes>
          <leafValues>
            3.7913489341735840e-01 -2.6295846700668335e-01</leafValues></_>
        <_>
          <internalNodes>
            0 -1 66 3.6941166035830975e-03</internalNodes>
          <leafValues>
            -2.3849935829639435e-01 3.9436098933219910e-01</leafValues></_>
        <_>
          <internalNodes>
            0 -1 95 7.0895664393901825e-03</internalNodes>
          <leafValues>
            -1.9657064974308014e-01 4.7715681791305542e-01</leafValues></_>
        <_>
          <internalNodes>
            0 -1 45 -4.2407084256410599e-03</internalNodes>
          <leafValues>
            3.2268747687339783e-01 -2.4622914195060730e-01</leafValues></_>
        <_>
          <internalNodes>
            0 -1 116 2.0342945936135948e-04</internalNodes>
          <leafValues>
            1.3306711614131927e-01 -6.9796913862228394e-01</leafValues></_>
        <_>
          <internalNodes>
            0 -1 11 -1.3457655441015959e-03</internalNodes>
          <leafValues>
            3.9167261123657227e-01 -2.3490504920482635e-01</leafValues></_>
        <_>
          <internalNodes>
            0 -1 9 -1.1584968306124210e-03</internalNodes>
          <leafValues>
            4.2085444927215576e-01 -2.1436749398708344e-01</leafValues></_>
        <_>
          <internalNodes>
            0 -1 31 -2.1984532941132784e-03</internalNodes>
          <leafValues>
            6.3995832204818726e-01 -1.3116069138050079e-01</leafValues></_>
        <_>
          <internalNodes>
            0 -1 27 -2.2188021102920175e-04</internalNodes>
          <leafValues>
            -6.4378088712692261e-01 1.4748653769493103e-01</leafValues></_>
        <_>
          <internalNodes>
            0 -1 35 -7.2850682772696018e-04</internalNodes>
          <leafValues>
            3.6227813363075256e-01 -2.3584775626659393e-01</leafValues></_>
        <_>
          <internalNodes>
            0 -1 137 2.4817278608679771e-04</internalNodes>
          <leafValues>
            1.2005152553319931e-01 -7.0095223188400269e-01</leafValues></_>
        <_>
          <internalNodes>
            0 -1 150 -2.7027961914427578e-04</internalNodes>
          <leafValues>
            3.2456728816032410e-01 -2.7957040071487427e-01</leafValues></_></weakClassifiers></_>
    <!-- stage 7 -->
    <_>
      <maxWeakCount>16</maxWeakCount>
      <stageThreshold>-6.0470199584960938e-01</stageThreshold>
      <weakClassifiers>
        <_>
          <internalNodes>
            0 -1 114 3.0658955802209675e-04</internalNodes>
          <leafValues>
            3.9946857094764709e-01 -7.1830987930297852e-01</leafValues></_>
        <_>
          <internalNodes>
            0 -1 38 -9.7430720925331116e-03</internalNodes>
          <leafValues>
            5.2866333723068237e-01 -1.3698679208755493e-01</leafValues></_>
        <_>
          <internalNodes>
            0 -1 140 3.4206914715468884e-03</internalNodes>
          <leafValues>
            -1.7729082703590393e-01 4.6307194232940674e-01</leafValues></_>
        <_>
          <internalNodes>
            0 -1 112 2.2545643150806427e-03</internalNodes>
          <leafValues>
            -4.9991577863693237e-01 1.6799521446228027e-01</leafValues></_>
        <_>
          <internalNodes>
            0 -1 22 -4.9401614814996719e-03</internalNodes>
          <leafValues>
            5.4360383749008179e-01 -1.4358396828174591e-01</leafValues></_>
        <_>
          <internalNodes>
            0 -1 131 -2.3066259745974094e-04</internalNodes>
          <leafValues>
            -6.8973124027252197e-01 9.6918784081935883e-02</leafValues></_>
        <_>
          <internalNodes>
            0 -1 98 -2.6384234428405762e-02</internalNodes>
          <leafValues>
            6.8527060747146606e-01 -1.1380730569362640e-01</leafValues></_>
        <_>
          <internalNodes>
            0 -1 44 5.3541255183517933e-03</internalNodes>
          <leafValues>
            -2.2882029414176941e-01 3.5281577706336975e-01</leafValues></_>
        <_>
          <internalNodes>
            0 -1 42 2.3250298108905554e-03</internalNodes>
          <leafValues>
            -1.9913147389888763e-01 3.5438060760498047e-01</leafValues></_>
        <_>
          <internalNodes>
            0 -1 113 -7.1587031707167625e-03</internalNodes>
          <leafValues>
            -7.8911828994750977e-01 8.7667360901832581e-02</leafValues></_>
        <_>
          <internalNodes>
            0 -1 88 6.8056965246796608e-03</internalNodes>
          <leafValues>
            -2.4388952553272247e-01 3.4981298446655273e-01</leafValues></_>
        <_>
          <internalNodes>
            0 -1 39 -1.0032087448053062e-04</internalNodes>
          <leafValues>
            -5.0325745344161987e-01 1.5183252096176147e-01</leafValues></_>
        <_>
          <internalNodes>
            0 -1 103 -9.9096633493900299e-04</internalNodes>
          <leafValues>
            2.6940849423408508e-01 -2.7662155032157898e-01</leafValues></_>
        <_>
          <internalNodes>
            0 -1 50 3.1096326187252998e-02</internalNodes>
          <leafValues>
            -1.3372039794921875e-01 5.9313690662384033e-01</leafValues></_>
        <_>
          <internalNodes>
            0 -1 115 6.9553535431623459e-03</internalNodes>
          <leafValues>
            -2.1607863903045654e-01 3.4600314497947693e-01</leafValues></_>
        <_>
          <internalNodes>
            0 -1 120 1.4233466237783432e-02</internalNodes>
          <leafValues>
            1.1197798699140549e-01 -8.0319839715957642e-01</leafValues></_></weakClassifiers></_>
    <!-- stage 8 -->
    <_>
      <maxWeakCount>18</maxWeakCount>
      <stageThreshold>-5.6254613399505615e-01</stageThreshold>
      <weakClassifiers>
        <_>
          <internalNodes>
            0 -1 2 -3.6853684578090906e-03</internalNodes>
          <leafValues>
            6.9086652994155884e-01 1.3583441078662872e-01</leafValues></_>
        <_>
          <internalNodes>
            0 -1 6 7.7258450910449028e-03</internalNodes>
          <leafValues>
            -2.0285104215145111e-01 4.0925189852714539e-01</leafValues></_>
        <_>
          <internalNodes>
            0 -1 8 8.5430666804313660e-03</internalNodes>
          <leafValues>
            -2.0782262086868286e-01 3.6379188299179077e-01</leafValues></_>
        <_>
          <internalNodes>
            0 -1 56 -3.4657234209589660e-05</internalNodes>
          <leafValues>
            2.6508828997612000e-01 -2.7402979135513306e-01</leafValues></_>
        <_>
          <internalNodes>
            0 -1 91 -1.4867290854454041e-02</internalNodes>
          <leafValues>
            4.3654209375381470e-01 -1.8036177754402161e-01</leafValues></_>
        <_>
          <internalNodes>
            0 -1 124 1.1191971134394407e-04</internalNodes>
          <leafValues>
            1.5390698611736298e-01 -5.5663675069808960e-01</leafValues></_>
        <_>
          <internalNodes>
            0 -1 63 1.8370635807514191e-02</internalNodes>
          <leafValues>
            -1.4949534833431244e-01 5.3851264715194702e-01</leafValues></_>
        <_>
          <internalNodes>
            0 -1 5 4.0191728621721268e-03</internalNodes>
          <leafValues>
            -1.1956254392862320e-01 5.8512109518051147e-01</leafValues></_>
        <_>
          <internalNodes>
            0 -1 3 -5.8514550328254700e-03</internalNodes>
          <leafValues>
            4.6931770443916321e-01 -1.7639645934104919e-01</leafValues></_>
        <_>
          <internalNodes>
            0 -1 107 -5.2820234559476376e-03</internalNodes>
          <leafValues>
            4.6206116676330566e-01 -1.6028906404972076e-01</leafValues></_>
        <_>
          <internalNodes>
            0 -1 153 4.6906099305488169e-04</internalNodes>
          <leafValues>
            1.3869898021221161e-01 -6.0465300083160400e-01</leafValues></_>
        <_>
          <internalNodes>
            0 -1 10 -3.2820776687003672e-04</internalNodes>
          <leafValues>
            3.4600767493247986e-01 -2.3578135669231415e-01</leafValues></_>
        <_>
          <internalNodes>
            0 -1 17 -7.1685472503304482e-03</internalNodes>
          <leafValues>
            2.8267991542816162e-01 -2.5630936026573181e-01</leafValues></_>
        <_>
          <internalNodes>
            0 -1 145 -8.0403313040733337e-03</internalNodes>
          <leafValues>
            9.3664610385894775e-01 -6.8675875663757324e-02</leafValues></_>
        <_>
          <internalNodes>
            0 -1 148 2.6172664365731180e-04</internalNodes>
          <leafValues>
            1.2713795900344849e-01 -6.9537311792373657e-01</leafValues></_>
        <_>
          <internalNodes>
            0 -1 85 2.3942515254020691e-03</internalNodes>
          <leafValues>
            -2.0040826499462128e-01 3.9235711097717285e-01</leafValues></_>
        <_>
          <internalNodes>
            0 -1 77 -3.8832370191812515e-03</internalNodes>
          <leafValues>
            5.0929421186447144e-01 -1.8582867085933685e-01</leafValues></_>
        <_>
          <internalNodes>
            0 -1 55 -6.3911126926541328e-03</internalNodes>
          <leafValues>
            2.6144400238990784e-01 -3.0075985193252563e-01</leafValues></_></weakClassifiers></_>
    <!-- stage 9 -->
    <_>
      <maxWeakCount>23</maxWeakCount>
      <stageThreshold>-7.8522765636444092e-01</stageThreshold>
      <weakClassifiers>
        <_>
          <internalNodes>
            0 -1 78 -1.5643898397684097e-02</internalNodes>
          <leafValues>
            6.6826921701431274e-01 1.5561224520206451e-01</leafValues></_>
        <_>
          <internalNodes>
            0 -1 101 -3.4399107098579407e-02</internalNodes>
          <leafValues>
            8.1712883710861206e-01 -5.8873161673545837e-02</leafValues></_>
        <_>
          <internalNodes>
            0 -1 128 1.7720221076160669e-03</internalNodes>
          <leafValues>
            -4.3243628740310669e-01 2.1063244342803955e-01</leafValues></_>
        <_>
          <internalNodes>
            0 -1 144 6.9234776310622692e-04</internalNodes>
          <leafValues>
            -1.8099947273731232e-01 3.7685653567314148e-01</leafValues></_>
        <_>
          <internalNodes>
            0 -1 28 4.7850999981164932e-03</internalNodes>
          <leafValues>
            -2.3873946070671082e-01 3.3416822552680969e-01</leafValues></_>
        <_>
          <internalNodes>
            0 -1 67 6.3041052781045437e-03</internalNodes>
          <leafValues>
            -1.4426271617412567e-01 4.7409504652023315e-01</leafValues></_>
        <_>
          <internalNodes>
            0 -1 36 -1.2226663529872894e-03</internalNodes>
          <leafValues>
            3.7171226739883423e-01 -2.1703287959098816e-01</leafValues></_>
        <_>
          <internalNodes>
            0 -1 110 7.1110781282186508e-03</internalNodes>
          <leafValues>
            -2.8839772939682007e-01 2.8403761982917786e-01</leafValues></_>
        <_>
          <internalNodes>
            0 -1 122 8.4411411080509424e-04</internalNodes>
          <leafValues>
            9.0972587466239929e-02 -7.9250729084014893e-01</leafValues></_>
        <_>
          <internalNodes>
            0 -1 53 -1.2558277230709791e-03</internalNodes>
          <leafValues>
            3.6612787842750549e-01 -1.9806233048439026e-01</leafValues></_>
        <_>
          <internalNodes>
            0 -1 149 -1.0253600776195526e-03</internalNodes>
          <leafValues>
            3.7353321909904480e-01 -2.0684957504272461e-01</leafValues></_>
        <_>
          <internalNodes>
            0 -1 37 2.8440938331186771e-04</internalNodes>
          <leafValues>
            1.2651680409908295e-01 -6.3119804859161377e-01</leafValues></_>
        <_>
          <internalNodes>
            0 -1 93 -1.0716328397393227e-03</internalNodes>
          <leafValues>
            2.8354930877685547e-01 -2.4995924532413483e-01</leafValues></_>
        <_>
          <internalNodes>
            0 -1 130 2.7852130006067455e-04</internalNodes>
          <leafValues>
            9.9628284573554993e-02 -6.8837732076644897e-01</leafValues></_>
        <_>
          <internalNodes>
            0 -1 155 3.2135208130057435e-06</internalNodes>
          <leafValues>
            -2.4699215590953827e-01 3.0699101090431213e-01</leafValues></_>
        <_>
          <internalNodes>
            0 -1 123 6.7942877649329603e-05</internalNodes>
          <leafValues>
            -2.0222356915473938e-01 3.6889228224754333e-01</leafValues></_>
        <_>
          <internalNodes>
            0 -1 46 -1.7551269847899675e-03</internalNodes>
          <leafValues>
            3.5910761356353760e-01 -2.0626653730869293e-01</leafValues></_>
        <_>
          <internalNodes>
            0 -1 14 2.4500568397343159e-03</internalNodes>
          <leafValues>
            -1.9856999814510345e-01 3.7456640601158142e-01</leafValues></_>
        <_>
          <internalNodes>
            0 -1 89 -7.4231354519724846e-03</internalNodes>
          <leafValues>
            7.2995668649673462e-01 -1.1859578639268875e-01</leafValues></_>
        <_>
          <internalNodes>
            0 -1 132 -5.1866658031940460e-03</internalNodes>
          <leafValues>
            2.7174800634384155e-01 -2.9157581925392151e-01</leafValues></_>
        <_>
          <internalNodes>
            0 -1 33 -6.1596831073984504e-04</internalNodes>
          <leafValues>
            2.9722437262535095e-01 -2.6986432075500488e-01</leafValues></_>
        <_>
          <internalNodes>
            0 -1 152 -4.9766246229410172e-04</internalNodes>
          <leafValues>
            3.7653133273124695e-01 -2.0735199749469757e-01</leafValues></_>
        <_>
          <internalNodes>
            0 -1 16 -7.7201500535011292e-03</internalNodes>
          <leafValues>
            6.3519555330276489e-01 -1.3029818236827850e-01</leafValues></_></weakClassifiers></_></stages>
  <features>
    <_>
      <rects>
        <_>
          0 6 9 13 -1.</_>
        <_>
          3 6 3 13 3.</_></rects>
      <tilted>0</tilted></_>
    <_>
      <rects>
        <_>
          0 10 4 20 -1.</_>
        <_>
          0 10 2 10 2.</_>
        <_>
          2 20 2 10 2.</_></rects>
      <tilted>0</tilted></_>
    <_>
      <rects>
        <_>
          0 11 4 22 -1.</_>
        <_>
          0 11 2 11 2.</_>
        <_>
          2 22 2 11 2.</_></rects>
      <tilted>0</tilted></_>
    <_>
      <rects>
        <_>
          0 12 6 20 -1.</_>
        <_>
          0 12 3 10 2.</_>
        <_>
          3 22 3 10 2.</_></rects>
      <tilted>0</tilted></_>
    <_>
      <rects>
        <_>
          0 12 6 22 -1.</_>
        <_>
          0 12 3 11 2.</_>
        <_>
          3 23 3 11 2.</_></rects>
      <tilted>0</tilted></_>
    <_>
      <rects>
        <_>
          0 14 4 22 -1.</_>
        <_>
          0 14 2 11 2.</_>
        <_>
          2 25 2 11 2.</_></rects>
      <tilted>0</tilted></_>
    <_>
      <rects>
        <_>
          0 14 9 30 -1.</_>
        <_>
          3 14 3 30 3.</_></rects>
      <tilted>0</tilted></_>
    <_>
      <rects>
        <_>
          0 21 6 10 -1.</_>
        <_>
          2 21 2 10 3.</_></rects>
      <tilted>0</tilted></_>
    <_>
      <rects>
        <_>
          1 8 22 12 -1.</_>
        <_>
          1 8 11 6 2.</_>
        <_>
          12 14 11 6 2.</_></rects>
      <tilted>0</tilted></_>
    <_>
      <rects>
        <_>
          1 24 6 3 -1.</_>
        <_>
          3 24 2 3 3.</_></rects>
      <tilted>0</tilted></_>
    <_>
      <rects>
        <_>
          1 27 3 5 -1.</_>
        <_>
          2 27 1 5 3.</_></rects>
      <tilted>0</tilted></_>
    <_>
      <rects>
        <_>
          2 47 48 2 -1.</_>
        <_>
          2 48 48 1 2.</_></rects>
      <tilted>0</tilted></_>
    <_>
      <rects>
        <_>
          3 12 8 9 -1.</_>
        <_>
          7 12 4 9 2.</_></rects>
      <tilted>0</tilted></_>
    <_>
      <rects>
        <_>
          3 13 1 24 -1.</_>
        <_>
          3 21 1 8 3.</_></rects>
      <tilted>0</tilted></_>
    <_>
      <rects>
        <_>
          3 15 8 10 -1.</_>
        <_>
          3 15 4 5 2.</_>
        <_>
          7 20 4 5 2.</_></rects>
      <tilted>0</tilted></_>
    <_>
      <rects>
        <_>
          3 17 9 18 -1.</_>
        <_>
          6 17 3 18 3.</_></rects>
      <tilted>0</tilted></_>
    <_>
      <rects>
        <_>
          3 45 39 1 -1.</_>
        <_>
          16 45 13 1 3.</_></rects>
      <tilted>0</tilted></_>
    <_>
      <rects>
        <_>
          4 10 5 39 -1.</_>
        <_>
          4 23 5 13 3.</_></rects>
      <tilted>0</tilted></_>
    <_>
      <rects>
        <_>
          4 11 6 24 -1.</_>
        <_>
          4 11 3 12 2.</_>
        <_>
          7 23 3 12 2.</_></rects>
      <tilted>0</tilted></_>
    <_>
      <rects>
        <_>
          4 19 12 25 -1.</_>
        <_>
          8 19 4 25 3.</_></rects>
      <tilted>0</tilted></_>
    <_>
      <rects>
        <_>
          4 22 4 14 -1.</_>
        <_>
          4 22 2 7 2.</_>
        <_>
          6 29 2 7 2.</_></rects>
      <tilted>0</tilted></_>
    <_>
      <rects>
        <_>
          4 43 16 4 -1.</_>
        <_>
          12 43 8 4 2.</_></rects>
      <tilted>0</tilted></_>
    <_>
      <rects>
        <_>
          5 1 24 4 -1.</_>
        <_>
          5 1 12 2 2.</_>
        <_>
          17 3 12 2 2.</_></rects>
      <tilted>0</tilted></_>
    <_>
      <rects>
        <_>
          5 7 42 2 -1.</_>
        <_>
          19 7 14 2 3.</_></rects>
      <tilted>0</tilted></_>
    <_>
      <rects>
        <_>
          5 11 4 30 -1.</_>
        <_>
          7 11 2 30 2.</_></rects>
      <tilted>0</tilted></_>
    <_>
      <rects>
        <_>
          5 12 6 26 -1.</_>
        <_>
          7 12 2 26 3.</_></rects>
      <tilted>0</tilted></_>
    <_>
      <rects>
        <_>
          5 20 2 2 -1.</_>
        <_>
          5 20 1 1 2.</_>
        <_>
          6 21 1 1 2.</_></rects>
      <tilted>0</tilted></_>
    <_>
      <rects>
        <_>
          5 31 2 2 -1.</_>
        <_>
          5 31 1 1 2.</_>
        <_>
          6 32 1 1 2.</_></rects>
      <tilted>0</tilted></_>
    <_>
      <rects>
        <_>
          5 31 20 4 -1.</_>
        <_>
          15 31 10 4 2.</_></rects>
      <tilted>0</tilted></_>
    <_>
      <rects>
        <_>
          5 38 8 10 -1.</_>
        <_>
          5 38 4 5 2.</_>
        <_>
          9 43 4 5 2.</_></rects>
      <tilted>0</tilted></_>
    <_>
      <rects>
        <_>
          6 9 4 11 -1.</_>
        <_>
          8 9 2 11 2.</_></rects>
      <tilted>0</tilted></_>
    <_>
      <rects>
        <_>
          6 10 4 4 -1.</_>
        <_>
          8 10 2 4 2.</_></rects>
      <tilted>0</tilted></_>
    <_>
      <rects>
        <_>
          6 10 8 2 -1.</_>
        <_>
          6 11 8 1 2.</_></rects>
      <tilted>0</tilted></_>
    <_>
      <rects>
        <_>
          6 22 6 4 -1.</_>
        <_>
          8 22 2 4 3.</_></rects>
      <tilted>0</tilted></_>
    <_>
      <rects>
        <_>
          6 24 6 22 -1.</_>
        <_>
          6 24 3 11 2.</_>
        <_>
          9 35 3 11 2.</_></rects>
      <tilted>0</tilted></_>
    <_>
      <rects>
        <_>
          6 27 4 10 -1.</_>
        <_>
          6 27 2 5 2.</_>
        <_>
          8 32 2 5 2.</_></rects>
      <tilted>0</tilted></_>
    <_>
      <rects>
        <_>
          6 32 6 8 -1.</_>
        <_>
          6 32 3 4 2.</_>
        <_>
          9 36 3 4 2.</_></rects>
      <tilted>0</tilted></_>
    <_>
      <rects>
        <_>
          6 34 1 3 -1.</_>
        <_>
          6 35 1 1 3.</_></rects>
      <tilted>0</tilted></_>
    <_>
      <rects>
        <_>
          6 35 20 12 -1.</_>
        <_>
          6 35 10 6 2.</_>
        <_>
          16 41 10 6 2.</_></rects>
      <tilted>0</tilted></_>
    <_>
      <rects>
        <_>
          6 44 2 2 -1.</_>
        <_>
          6 44 1 1 2.</_>
        <_>
          7 45 1 1 2.</_></rects>
      <tilted>0</tilted></_>
    <_>
      <rects>
        <_>
          8 4 36 5 -1.</_>
        <_>
          20 4 12 5 3.</_></rects>
      <tilted>0</tilted></_>
    <_>
      <rects>
        <_>
          8 6 22 4 -1.</_>
        <_>
          19 6 11 4 2.</_></rects>
      <tilted>0</tilted></_>
    <_>
      <rects>
        <_>
          8 8 8 10 -1.</_>
        <_>
          8 8 4 5 2.</_>
        <_>
          12 13 4 5 2.</_></rects>
      <tilted>0</tilted></_>
    <_>
      <rects>
        <_>
          8 8 10 8 -1.</_>
        <_>
          8 8 5 4 2.</_>
        <_>
          13 12 5 4 2.</_></rects>
      <tilted>0</tilted></_>
    <_>
      <rects>
        <_>
          8 27 24 12 -1.</_>
        <_>
          8 31 24 4 3.</_></rects>
      <tilted>0</tilted></_>
    <_>
      <rects>
        <_>
          9 7 9 8 -1.</_>
        <_>
          9 11 9 4 2.</_></rects>
      <tilted>0</tilted></_>
    <_>
      <rects>
        <_>
          9 8 7 4 -1.</_>
        <_>
          9 10 7 2 2.</_></rects>
      <tilted>0</tilted></_>
    <_>
      <rects>
        <_>
          10 3 8 8 -1.</_>
        <_>
          10 3 4 4 2.</_>
        <_>
          14 7 4 4 2.</_></rects>
      <tilted>0</tilted></_>
    <_>
      <rects>
        <_>
          10 9 8 6 -1.</_>
        <_>
          10 11 8 2 3.</_></rects>
      <tilted>0</tilted></_>
    <_>
      <rects>
        <_>
          10 41 34 6 -1.</_>
        <_>
          10 44 34 3 2.</_></rects>
      <tilted>0</tilted></_>
    <_>
      <rects>
        <_>
          11 44 39 5 -1.</_>
        <_>
          24 44 13 5 3.</_></rects>
      <tilted>0</tilted></_>
    <_>
      <rects>
        <_>
          12 7 6 4 -1.</_>
        <_>
          12 9 6 2 2.</_></rects>
      <tilted>0</tilted></_>
    <_>
      <rects>
        <_>
          12 7 7 9 -1.</_>
        <_>
          12 10 7 3 3.</_></rects>
      <tilted>0</tilted></_>
    <_>
      <rects>
        <_>
          13 29 6 8 -1.</_>
        <_>
          13 29 3 4 2.</_>
        <_>
          16 33 3 4 2.</_></rects>
      <tilted>0</tilted></_>
    <_>
      <rects>
        <_>
          14 5 4 15 -1.</_>
        <_>
          14 10 4 5 3.</_></rects>
      <tilted>0</tilted></_>
    <_>
      <rects>
        <_>
          15 2 23 21 -1.</_>
        <_>
          15 9 23 7 3.</_></rects>
      <tilted>0</tilted></_>
    <_>
      <rects>
        <_>
          15 8 1 2 -1.</_>
        <_>
          15 9 1 1 2.</_></rects>
      <tilted>0</tilted></_>
    <_>
      <rects>
        <_>
          15 42 26 2 -1.</_>
        <_>
          15 43 26 1 2.</_></rects>
      <tilted>0</tilted></_>
    <_>
      <rects>
        <_>
          16 1 24 6 -1.</_>
        <_>
          16 1 12 3 2.</_>
        <_>
          28 4 12 3 2.</_></rects>
      <tilted>0</tilted></_>
    <_>
      <rects>
        <_>
          19 6 11 6 -1.</_>
        <_>
          19 8 11 2 3.</_></rects>
      <tilted>0</tilted></_>
    <_>
      <rects>
        <_>
          19 12 12 13 -1.</_>
        <_>
          23 12 4 13 3.</_></rects>
      <tilted>0</tilted></_>
    <_>
      <rects>
        <_>
          20 21 9 7 -1.</_>
        <_>
          23 21 3 7 3.</_></rects>
      <tilted>0</tilted></_>
    <_>
      <rects>
        <_>
          20 24 9 2 -1.</_>
        <_>
          23 24 3 2 3.</_></rects>
      <tilted>0</tilted></_>
    <_>
      <rects>
        <_>
          21 6 11 18 -1.</_>
        <_>
          21 12 11 6 3.</_></rects>
      <tilted>0</tilted></_>
    <_>
      <rects>
        <_>
          22 13 5 24 -1.</_>
        <_>
          22 21 5 8 3.</_></rects>
      <tilted>0</tilted></_>
    <_>
      <rects>
        <_>
          22 19 21 3 -1.</_>
        <_>
          29 19 7 3 3.</_></rects>
      <tilted>0</tilted></_>
    <_>
      <rects>
        <_>
          22 20 3 18 -1.</_>
        <_>
          22 29 3 9 2.</_></rects>
      <tilted>0</tilted></_>
    <_>
      <rects>
        <_>
          23 1 16 8 -1.</_>
        <_>
          23 1 8 4 2.</_>
        <_>
          31 5 8 4 2.</_></rects>
      <tilted>0</tilted></_>
    <_>
      <rects>
        <_>
          23 3 14 12 -1.</_>
        <_>
          23 3 7 6 2.</_>
        <_>
          30 9 7 6 2.</_></rects>
      <tilted>0</tilted></_>
    <_>
      <rects>
        <_>
          23 19 18 6 -1.</_>
        <_>
          29 19 6 6 3.</_></rects>
      <tilted>0</tilted></_>
    <_>
      <rects>
        <_>
          24 6 2 4 -1.</_>
        <_>
          24 8 2 2 2.</_></rects>
      <tilted>0</tilted></_>
    <_>
      <rects>
        <_>
          26 3 14 1 -1.</_>
        <_>
          33 3 7 1 2.</_></rects>
      <tilted>0</tilted></_>
    <_>
      <rects>
        <_>
          26 6 16 12 -1.</_>
        <_>
          26 6 8 6 2.</_>
        <_>
          34 12 8 6 2.</_></rects>
      <tilted>0</tilted></_>
    <_>
      <rects>
        <_>
          26 15 21 3 -1.</_>
        <_>
          33 15 7 3 3.</_></rects>
      <tilted>0</tilted></_>
    <_>
      <rects>
        <_>
          27 42 15 8 -1.</_>
        <_>
          32 42 5 8 3.</_></rects>
      <tilted>0</tilted></_>
    <_>
      <rects>
        <_>
          28 4 8 12 -1.</_>
        <_>
          28 8 8 4 3.</_></rects>
      <tilted>0</tilted></_>
    <_>
      <rects>
        <_>
          28 40 16 6 -1.</_>
        <_>
          28 43 16 3 2.</_></rects>
      <tilted>0</tilted></_>
    <_>
      <rects>
        <_>
          28 45 12 5 -1.</_>
        <_>
          32 45 4 5 3.</_></rects>
      <tilted>0</tilted></_>
    <_>
      <rects>
        <_>
          29 3 14 18 -1.</_>
        <_>
          29 3 7 9 2.</_>
        <_>
          36 12 7 9 2.</_></rects>
      <tilted>0</tilted></_>
    <_>
      <rects>
        <_>
          29 6 12 14 -1.</_>
        <_>
          29 6 6 7 2.</_>
        <_>
          35 13 6 7 2.</_></rects>
      <tilted>0</tilted></_>
    <_>
      <rects>
        <_>
          29 8 16 14 -1.</_>
        <_>
          29 8 8 7 2.</_>
        <_>
          37 15 8 7 2.</_></rects>
      <tilted>0</tilted></_>
    <_>
      <rects>
        <_>
          29 41 18 9 -1.</_>
        <_>
          29 44 18 3 3.</_></rects>
      <tilted>0</tilted></_>
    <_>
      <rects>
        <_>
          30 4 7 18 -1.</_>
        <_>
          30 10 7 6 3.</_></rects>
      <tilted>0</tilted></_>
    <_>
      <rects>
        <_>
          30 9 16 14 -1.</_>
        <_>
          30 9 8 7 2.</_>
        <_>
          38 16 8 7 2.</_></rects>
      <tilted>0</tilted></_>
    <_>
      <rects>
        <_>
          30 30 20 14 -1.</_>
        <_>
          30 30 10 7 2.</_>
        <_>
          40 37 10 7 2.</_></rects>
      <tilted>0</tilted></_>
    <_>
      <rects>
        <_>
          30 43 9 6 -1.</_>
        <_>
          33 43 3 6 3.</_></rects>
      <tilted>0</tilted></_>
    <_>
      <rects>
        <_>
          31 1 10 7 -1.</_>
        <_>
          36 1 5 7 2.</_></rects>
      <tilted>0</tilted></_>
    <_>
      <rects>
        <_>
          31 35 16 12 -1.</_>
        <_>
          31 35 8 6 2.</_>
        <_>
          39 41 8 6 2.</_></rects>
      <tilted>0</tilted></_>
    <_>
      <rects>
        <_>
          31 37 16 8 -1.</_>
        <_>
          31 41 16 4 2.</_></rects>
      <tilted>0</tilted></_>
    <_>
      <rects>
        <_>
          31 44 14 3 -1.</_>
        <_>
          38 44 7 3 2.</_></rects>
      <tilted>0</tilted></_>
    <_>
      <rects>
        <_>
          32 19 3 8 -1.</_>
        <_>
          32 23 3 4 2.</_></rects>
      <tilted>0</tilted></_>
    <_>
      <rects>
        <_>
          32 35 16 14 -1.</_>
        <_>
          32 35 8 7 2.</_>
        <_>
          40 42 8 7 2.</_></rects>
      <tilted>0</tilted></_>
    <_>
      <rects>
        <_>
          33 4 7 8 -1.</_>
        <_>
          33 8 7 4 2.</_></rects>
      <tilted>0</tilted></_>
    <_>
      <rects>
        <_>
          33 8 9 4 -1.</_>
        <_>
          33 10 9 2 2.</_></rects>
      <tilted>0</tilted></_>
    <_>
      <rects>
        <_>
          33 35 12 4 -1.</_>
        <_>
          37 35 4 4 3.</_></rects>
      <tilted>0</tilted></_>
    <_>
      <rects>
        <_>
          33 38 10 9 -1.</_>
        <_>
          38 38 5 9 2.</_></rects>
      <tilted>0</tilted></_>
    <_>
      <rects>
        <_>
          34 25 12 18 -1.</_>
        <_>
          38 25 4 18 3.</_></rects>
      <tilted>0</tilted></_>
    <_>
      <rects>
        <_>
          34 30 13 20 -1.</_>
        <_>
          34 40 13 10 2.</_></rects>
      <tilted>0</tilted></_>
    <_>
      <rects>
        <_>
          34 31 14 18 -1.</_>
        <_>
          34 31 7 9 2.</_>
        <_>
          41 40 7 9 2.</_></rects>
      <tilted>0</tilted></_>
    <_>
      <rects>
        <_>
          34 38 12 12 -1.</_>
        <_>
          34 42 12 4 3.</_></rects>
      <tilted>0</tilted></_>
    <_>
      <rects>
        <_>
          35 6 1 12 -1.</_>
        <_>
          35 10 1 4 3.</_></rects>
      <tilted>0</tilted></_>
    <_>
      <rects>
        <_>
          35 25 14 24 -1.</_>
        <_>
          35 25 7 12 2.</_>
        <_>
          42 37 7 12 2.</_></rects>
      <tilted>0</tilted></_>
    <_>
      <rects>
        <_>
          35 44 1 3 -1.</_>
        <_>
          35 45 1 1 3.</_></rects>
      <tilted>0</tilted></_>
    <_>
      <rects>
        <_>
          36 2 1 14 -1.</_>
        <_>
          36 9 1 7 2.</_></rects>
      <tilted>0</tilted></_>
    <_>
      <rects>
        <_>
          36 16 12 6 -1.</_>
        <_>
          36 16 6 3 2.</_>
        <_>
          42 19 6 3 2.</_></rects>
      <tilted>0</tilted></_>
    <_>
      <rects>
        <_>
          38 4 10 46 -1.</_>
        <_>
          43 4 5 46 2.</_></rects>
      <tilted>0</tilted></_>
    <_>
      <rects>
        <_>
          38 12 10 29 -1.</_>
        <_>
          43 12 5 29 2.</_></rects>
      <tilted>0</tilted></_>
    <_>
      <rects>
        <_>
          38 21 6 14 -1.</_>
        <_>
          40 21 2 14 3.</_></rects>
      <tilted>0</tilted></_>
    <_>
      <rects>
        <_>
          38 27 4 15 -1.</_>
        <_>
          38 32 4 5 3.</_></rects>
      <tilted>0</tilted></_>
    <_>
      <rects>
        <_>
          39 10 8 28 -1.</_>
        <_>
          43 10 4 28 2.</_></rects>
      <tilted>0</tilted></_>
    <_>
      <rects>
        <_>
          40 10 6 26 -1.</_>
        <_>
          43 10 3 26 2.</_></rects>
      <tilted>0</tilted></_>
    <_>
      <rects>
        <_>
          40 12 8 26 -1.</_>
        <_>
          44 12 4 26 2.</_></rects>
      <tilted>0</tilted></_>
    <_>
      <rects>
        <_>
          40 16 8 19 -1.</_>
        <_>
          44 16 4 19 2.</_></rects>
      <tilted>0</tilted></_>
    <_>
      <rects>
        <_>
          40 17 1 27 -1.</_>
        <_>
          40 26 1 9 3.</_></rects>
      <tilted>0</tilted></_>
    <_>
      <rects>
        <_>
          40 26 2 2 -1.</_>
        <_>
          40 26 1 1 2.</_>
        <_>
          41 27 1 1 2.</_></rects>
      <tilted>0</tilted></_>
    <_>
      <rects>
        <_>
          40 26 6 18 -1.</_>
        <_>
          43 26 3 18 2.</_></rects>
      <tilted>0</tilted></_>
    <_>
      <rects>
        <_>
          40 27 2 2 -1.</_>
        <_>
          40 27 1 1 2.</_>
        <_>
          41 28 1 1 2.</_></rects>
      <tilted>0</tilted></_>
    <_>
      <rects>
        <_>
          40 33 4 10 -1.</_>
        <_>
          42 33 2 10 2.</_></rects>
      <tilted>0</tilted></_>
    <_>
      <rects>
        <_>
          41 6 4 3 -1.</_>
        <_>
          41 7 4 1 3.</_></rects>
      <tilted>0</tilted></_>
    <_>
      <rects>
        <_>
          41 10 2 28 -1.</_>
        <_>
          41 24 2 14 2.</_></rects>
      <tilted>0</tilted></_>
    <_>
      <rects>
        <_>
          41 22 8 9 -1.</_>
        <_>
          45 22 4 9 2.</_></rects>
      <tilted>0</tilted></_>
    <_>
      <rects>
        <_>
          41 23 3 24 -1.</_>
        <_>
          41 35 3 12 2.</_></rects>
      <tilted>0</tilted></_>
    <_>
      <rects>
        <_>
          41 25 3 3 -1.</_>
        <_>
          41 26 3 1 3.</_></rects>
      <tilted>0</tilted></_>
    <_>
      <rects>
        <_>
          41 30 2 1 -1.</_>
        <_>
          42 30 1 1 2.</_></rects>
      <tilted>0</tilted></_>
    <_>
      <rects>
        <_>
          41 43 2 2 -1.</_>
        <_>
          41 43 1 1 2.</_>
        <_>
          42 44 1 1 2.</_></rects>
      <tilted>0</tilted></_>
    <_>
      <rects>
        <_>
          42 6 3 39 -1.</_>
        <_>
          42 19 3 13 3.</_></rects>
      <tilted>0</tilted></_>
    <_>
      <rects>
        <_>
          42 24 6 5 -1.</_>
        <_>
          44 24 2 5 3.</_></rects>
      <tilted>0</tilted></_>
    <_>
      <rects>
        <_>
          42 24 6 6 -1.</_>
        <_>
          44 24 2 6 3.</_></rects>
      <tilted>0</tilted></_>
    <_>
      <rects>
        <_>
          42 24 6 20 -1.</_>
        <_>
          42 34 6 10 2.</_></rects>
      <tilted>0</tilted></_>
    <_>
      <rects>
        <_>
          42 26 7 12 -1.</_>
        <_>
          42 32 7 6 2.</_></rects>
      <tilted>0</tilted></_>
    <_>
      <rects>
        <_>
          42 27 1 3 -1.</_>
        <_>
          42 28 1 1 3.</_></rects>
      <tilted>0</tilted></_>
    <_>
      <rects>
        <_>
          42 38 2 2 -1.</_>
        <_>
          42 38 1 1 2.</_>
        <_>
          43 39 1 1 2.</_></rects>
      <tilted>0</tilted></_>
    <_>
      <rects>
        <_>
          43 6 3 39 -1.</_>
        <_>
          43 19 3 13 3.</_></rects>
      <tilted>0</tilted></_>
    <_>
      <rects>
        <_>
          43 21 6 3 -1.</_>
        <_>
          43 22 6 1 3.</_></rects>
      <tilted>0</tilted></_>
    <_>
      <rects>
        <_>
          43 25 1 22 -1.</_>
        <_>
          43 36 1 11 2.</_></rects>
      <tilted>0</tilted></_>
    <_>
      <rects>
        <_>
          43 25 3 3 -1.</_>
        <_>
          43 26 3 1 3.</_></rects>
      <tilted>0</tilted></_>
    <_>
      <rects>
        <_>
          43 27 1 2 -1.</_>
        <_>
          43 28 1 1 2.</_></rects>
      <tilted>0</tilted></_>
    <_>
      <rects>
        <_>
          43 27 1 3 -1.</_>
        <_>
          43 28 1 1 3.</_></rects>
      <tilted>0</tilted></_>
    <_>
      <rects>
        <_>
          43 27 2 2 -1.</_>
        <_>
          43 27 1 1 2.</_>
        <_>
          44 28 1 1 2.</_></rects>
      <tilted>0</tilted></_>
    <_>
      <rects>
        <_>
          44 18 4 10 -1.</_>
        <_>
          44 18 2 5 2.</_>
        <_>
          46 23 2 5 2.</_></rects>
      <tilted>0</tilted></_>
    <_>
      <rects>
        <_>
          44 22 4 14 -1.</_>
        <_>
          44 22 2 7 2.</_>
        <_>
          46 29 2 7 2.</_></rects>
      <tilted>0</tilted></_>
    <_>
      <rects>
        <_>
          44 24 4 10 -1.</_>
        <_>
          44 24 2 5 2.</_>
        <_>
          46 29 2 5 2.</_></rects>
      <tilted>0</tilted></_>
    <_>
      <rects>
        <_>
          44 25 4 8 -1.</_>
        <_>
          44 25 2 4 2.</_>
        <_>
          46 29 2 4 2.</_></rects>
      <tilted>0</tilted></_>
    <_>
      <rects>
        <_>
          44 34 4 2 -1.</_>
        <_>
          44 35 4 1 2.</_></rects>
      <tilted>0</tilted></_>
    <_>
      <rects>
        <_>
          45 23 2 12 -1.</_>
        <_>
          45 23 1 6 2.</_>
        <_>
          46 29 1 6 2.</_></rects>
      <tilted>0</tilted></_>
    <_>
      <rects>
        <_>
          46 5 4 18 -1.</_>
        <_>
          46 5 2 9 2.</_>
        <_>
          48 14 2 9 2.</_></rects>
      <tilted>0</tilted></_>
    <_>
      <rects>
        <_>
          46 11 4 35 -1.</_>
        <_>
          48 11 2 35 2.</_></rects>
      <tilted>0</tilted></_>
    <_>
      <rects>
        <_>
          46 25 3 1 -1.</_>
        <_>
          47 25 1 1 3.</_></rects>
      <tilted>0</tilted></_>
    <_>
      <rects>
        <_>
          46 31 1 3 -1.</_>
        <_>
          46 32 1 1 3.</_></rects>
      <tilted>0</tilted></_>
    <_>
      <rects>
        <_>
          47 13 2 23 -1.</_>
        <_>
          48 13 1 23 2.</_></rects>
      <tilted>0</tilted></_>
    <_>
      <rects>
        <_>
          47 14 2 26 -1.</_>
        <_>
          48 14 1 26 2.</_></rects>
      <tilted>0</tilted></_>
    <_>
      <rects>
        <_>
          47 15 2 18 -1.</_>
        <_>
          47 15 1 9 2.</_>
        <_>
          48 24 1 9 2.</_></rects>
      <tilted>0</tilted></_>
    <_>
      <rects>
        <_>
          47 23 2 12 -1.</_>
        <_>
          47 23 1 6 2.</_>
        <_>
          48 29 1 6 2.</_></rects>
      <tilted>0</tilted></_>
    <_>
      <rects>
        <_>
          47 39 3 2 -1.</_>
        <_>
          48 39 1 2 3.</_></rects>
      <tilted>0</tilted></_>
    <_>
      <rects>
        <_>
          48 5 2 20 -1.</_>
        <_>
          48 5 1 10 2.</_>
        <_>
          49 15 1 10 2.</_></rects>
      <tilted>0</tilted></_>
    <_>
      <rects>
        <_>
          48 6 1 6 -1.</_>
        <_>
          48 9 1 3 2.</_></rects>
      <tilted>0</tilted></_>
    <_>
      <rects>
        <_>
          48 24 2 12 -1.</_>
        <_>
          48 24 1 6 2.</_>
        <_>
          49 30 1 6 2.</_></rects>
      <tilted>0</tilted></_></features></cascade>
</opencv_storage>
