<?xml version="1.0"?>
<opencv_storage>
<stage14>
  <maxWeakCount>21</maxWeakCount>
  <stageThreshold>-6.1568301916122437e-01</stageThreshold>
  <weakClassifiers>
    <_>
      <internalNodes>
        0 -1 2929419 -3.1408010981976986e-03</internalNodes>
      <leafValues>
        4.7752127051353455e-01 1.8567638471722603e-02</leafValues></_>
    <_>
      <internalNodes>
        0 -1 3010835 -7.0142885670065880e-04</internalNodes>
      <leafValues>
        3.6901125311851501e-01 -1.5635612607002258e-01</leafValues></_>
    <_>
      <internalNodes>
        0 -1 513239 6.7059537395834923e-03</internalNodes>
      <leafValues>
        -1.4703769981861115e-01 4.0723410248756409e-01</leafValues></_>
    <_>
      <internalNodes>
        0 -1 57743 9.1985892504453659e-03</internalNodes>
      <leafValues>
        -1.6295129060745239e-01 5.1633018255233765e-01</leafValues></_>
    <_>
      <internalNodes>
        0 -1 2364597 -6.4425622113049030e-03</internalNodes>
      <leafValues>
        7.6041901111602783e-01 -4.9920186400413513e-02</leafValues></_>
    <_>
      <internalNodes>
        0 -1 2700122 1.9351320806890726e-03</internalNodes>
      <leafValues>
        -1.8939065933227539e-01 3.5051047801971436e-01</leafValues></_>
    <_>
      <internalNodes>
        0 -1 1435150 3.3305445685982704e-03</internalNodes>
      <leafValues>
        -1.9469554722309113e-01 2.9095524549484253e-01</leafValues></_>
    <_>
      <internalNodes>
        0 -1 2464036 -2.2424105554819107e-02</internalNodes>
      <leafValues>
        6.2000471353530884e-01 -8.6500756442546844e-02</leafValues></_>
    <_>
      <internalNodes>
        0 -1 3005652 2.3526124656200409e-02</internalNodes>
      <leafValues>
        -7.5722277164459229e-02 7.8140598535537720e-01</leafValues></_>
    <_>
      <internalNodes>
        0 -1 2977204 1.2581162154674530e-03</internalNodes>
      <leafValues>
        -1.8412853777408600e-01 3.1055945158004761e-01</leafValues></_>
    <_>
      <internalNodes>
        0 -1 121077 2.6607932522892952e-02</internalNodes>
      <leafValues>
        -1.0821105539798737e-01 5.3000283241271973e-01</leafValues></_>
    <_>
      <internalNodes>
        0 -1 1115499 -1.5056286938488483e-03</internalNodes>
      <leafValues>
        3.0545967817306519e-01 -2.0218154788017273e-01</leafValues></_>
    <_>
      <internalNodes>
        0 -1 987838 4.2949960334226489e-04</internalNodes>
      <leafValues>
        1.4054782688617706e-01 -4.5914572477340698e-01</leafValues></_>
    <_>
      <internalNodes>
        0 -1 1683419 5.9553747996687889e-03</internalNodes>
      <leafValues>
        -9.6293032169342041e-02 6.5178883075714111e-01</leafValues></_>
    <_>
      <internalNodes>
        0 -1 2637880 -1.0589725570753217e-04</internalNodes>
      <leafValues>
        -2.5550720095634460e-01 2.2550646960735321e-01</leafValues></_>
    <_>
      <internalNodes>
        0 -1 343843 1.4132328215055168e-04</internalNodes>
      <leafValues>
        9.0518176555633545e-02 -5.7277250289916992e-01</leafValues></_>
    <_>
      <internalNodes>
        0 -1 3017675 1.4105587615631521e-04</internalNodes>
      <leafValues>
        -2.2642880678176880e-01 2.9285591840744019e-01</leafValues></_>
    <_>
      <internalNodes>
        0 -1 2902758 -5.6276645045727491e-04</internalNodes>
      <leafValues>
        5.0685667991638184e-01 -1.2991651892662048e-01</leafValues></_>
    <_>
      <internalNodes>
        0 -1 677339 -5.4587137128692120e-05</internalNodes>
      <leafValues>
        -4.4218498468399048e-01 1.6417147219181061e-01</leafValues></_>
    <_>
      <internalNodes>
        0 -1 2488258 4.6866443008184433e-03</internalNodes>
      <leafValues>
        -1.0114016383886337e-01 6.4406782388687134e-01</leafValues></_>
    <_>
      <internalNodes>
        0 -1 2875409 -8.2095898687839508e-03</internalNodes>
      <leafValues>
        6.0700732469558716e-01 -1.0025712847709656e-01</leafValues></_></weakClassifiers></stage14>
</opencv_storage>
