<?xml version="1.0"?>
<opencv_storage>
<stage8>
  <maxWeakCount>18</maxWeakCount>
  <stageThreshold>-5.6254613399505615e-01</stageThreshold>
  <weakClassifiers>
    <_>
      <internalNodes>
        0 -1 46903 -3.6853684578090906e-03</internalNodes>
      <leafValues>
        6.9086652994155884e-01 1.3583441078662872e-01</leafValues></_>
    <_>
      <internalNodes>
        0 -1 57791 7.7258450910449028e-03</internalNodes>
      <leafValues>
        -2.0285104215145111e-01 4.0925189852714539e-01</leafValues></_>
    <_>
      <internalNodes>
        0 -1 155220 8.5430666804313660e-03</internalNodes>
      <leafValues>
        -2.0782262086868286e-01 3.6379188299179077e-01</leafValues></_>
    <_>
      <internalNodes>
        0 -1 1564355 -3.4657234209589660e-05</internalNodes>
      <leafValues>
        2.6508828997612000e-01 -2.7402979135513306e-01</leafValues></_>
    <_>
      <internalNodes>
        0 -1 2668962 -1.4867290854454041e-02</internalNodes>
      <leafValues>
        4.3654209375381470e-01 -1.8036177754402161e-01</leafValues></_>
    <_>
      <internalNodes>
        0 -1 2945301 1.1191971134394407e-04</internalNodes>
      <leafValues>
        1.5390698611736298e-01 -5.5663675069808960e-01</leafValues></_>
    <_>
      <internalNodes>
        0 -1 2021048 1.8370635807514191e-02</internalNodes>
      <leafValues>
        -1.4949534833431244e-01 5.3851264715194702e-01</leafValues></_>
    <_>
      <internalNodes>
        0 -1 57618 4.0191728621721268e-03</internalNodes>
      <leafValues>
        -1.1956254392862320e-01 5.8512109518051147e-01</leafValues></_>
    <_>
      <internalNodes>
        0 -1 50695 -5.8514550328254700e-03</internalNodes>
      <leafValues>
        4.6931770443916321e-01 -1.7639645934104919e-01</leafValues></_>
    <_>
      <internalNodes>
        0 -1 2867055 -5.2820234559476376e-03</internalNodes>
      <leafValues>
        4.6206116676330566e-01 -1.6028906404972076e-01</leafValues></_>
    <_>
      <internalNodes>
        0 -1 3019477 4.6906099305488169e-04</internalNodes>
      <leafValues>
        1.3869898021221161e-01 -6.0465300083160400e-01</leafValues></_>
    <_>
      <internalNodes>
        0 -1 211397 -3.2820776687003672e-04</internalNodes>
      <leafValues>
        3.4600767493247986e-01 -2.3578135669231415e-01</leafValues></_>
    <_>
      <internalNodes>
        0 -1 503345 -7.1685472503304482e-03</internalNodes>
      <leafValues>
        2.8267991542816162e-01 -2.5630936026573181e-01</leafValues></_>
    <_>
      <internalNodes>
        0 -1 3006225 -8.0403313040733337e-03</internalNodes>
      <leafValues>
        9.3664610385894775e-01 -6.8675875663757324e-02</leafValues></_>
    <_>
      <internalNodes>
        0 -1 3012167 2.6172664365731180e-04</internalNodes>
      <leafValues>
        1.2713795900344849e-01 -6.9537311792373657e-01</leafValues></_>
    <_>
      <internalNodes>
        0 -1 2583945 2.3942515254020691e-03</internalNodes>
      <leafValues>
        -2.0040826499462128e-01 3.9235711097717285e-01</leafValues></_>
    <_>
      <internalNodes>
        0 -1 2487427 -3.8832370191812515e-03</internalNodes>
      <leafValues>
        5.0929421186447144e-01 -1.8582867085933685e-01</leafValues></_>
    <_>
      <internalNodes>
        0 -1 1549220 -6.3911126926541328e-03</internalNodes>
      <leafValues>
        2.6144400238990784e-01 -3.0075985193252563e-01</leafValues></_></weakClassifiers></stage8>
</opencv_storage>
