<?xml version="1.0"?>
<opencv_storage>
<stage0>
  <maxWeakCount>10</maxWeakCount>
  <stageThreshold>-7.9763209819793701e-01</stageThreshold>
  <weakClassifiers>
    <_>
      <internalNodes>
        0 -1 2860513 8.5112862288951874e-03</internalNodes>
      <leafValues>
        -2.9670330882072449e-01 7.1812081336975098e-01</leafValues></_>
    <_>
      <internalNodes>
        0 -1 905340 -1.0908353142440319e-03</internalNodes>
      <leafValues>
        4.0461134910583496e-01 -3.8200032711029053e-01</leafValues></_>
    <_>
      <internalNodes>
        0 -1 399119 -5.9771481901407242e-03</internalNodes>
      <leafValues>
        5.8061373233795166e-01 -2.5058171153068542e-01</leafValues></_>
    <_>
      <internalNodes>
        0 -1 2114122 3.6556306295096874e-03</internalNodes>
      <leafValues>
        -3.0810594558715820e-01 4.5639783143997192e-01</leafValues></_>
    <_>
      <internalNodes>
        0 -1 2959241 3.5867658443748951e-03</internalNodes>
      <leafValues>
        -2.3752440512180328e-01 6.9264459609985352e-01</leafValues></_>
    <_>
      <internalNodes>
        0 -1 2975771 1.6530567081645131e-03</internalNodes>
      <leafValues>
        -3.6162215471267700e-01 4.6992111206054688e-01</leafValues></_>
    <_>
      <internalNodes>
        0 -1 1118530 -6.6851003793999553e-04</internalNodes>
      <leafValues>
        4.9405223131179810e-01 -3.2747539877891541e-01</leafValues></_>
    <_>
      <internalNodes>
        0 -1 402077 -4.6726077562198043e-04</internalNodes>
      <leafValues>
        3.2570627331733704e-01 -3.6803343892097473e-01</leafValues></_>
    <_>
      <internalNodes>
        0 -1 2503478 -1.1984648182988167e-02</internalNodes>
      <leafValues>
        5.3038126230239868e-01 -2.1894726157188416e-01</leafValues></_>
    <_>
      <internalNodes>
        0 -1 2486116 3.0673164874315262e-03</internalNodes>
      <leafValues>
        -2.9149329662322998e-01 4.0140104293823242e-01</leafValues></_></weakClassifiers></stage0>
</opencv_storage>
