<?xml version="1.0"?>
<opencv_storage>
<cascade>
  <stageType>BOOST</stageType>
  <featureType>HAAR</featureType>
  <height>50</height>
  <width>50</width>
  <stageParams>
    <boostType>GAB</boostType>
    <minHitRate>9.9500000476837158e-01</minHitRate>
    <maxFalseAlarm>5.0000000000000000e-01</maxFalseAlarm>
    <weightTrimRate>9.4999999999999996e-01</weightTrimRate>
    <maxDepth>1</maxDepth>
    <maxWeakCount>100</maxWeakCount></stageParams>
  <featureParams>
    <maxCatCount>0</maxCatCount>
    <featSize>1</featSize>
    <mode>BASIC</mode></featureParams>
  <stageNum>3</stageNum>
  <stages>
    <!-- stage 0 -->
    <_>
      <maxWeakCount>5</maxWeakCount>
      <stageThreshold>-5.2436035871505737e-01</stageThreshold>
      <weakClassifiers>
        <_>
          <internalNodes>
            0 -1 11 -3.1161736696958542e-03</internalNodes>
          <leafValues>
            7.7923786640167236e-01 -4.3963554501533508e-01</leafValues></_>
        <_>
          <internalNodes>
            0 -1 9 -1.4639170840382576e-03</internalNodes>
          <leafValues>
            5.4468923807144165e-01 -5.4858952760696411e-01</leafValues></_>
        <_>
          <internalNodes>
            0 -1 5 1.8828657921403646e-03</internalNodes>
          <leafValues>
            -3.3073002099990845e-01 6.0803419351577759e-01</leafValues></_>
        <_>
          <internalNodes>
            0 -1 13 -3.7241991958580911e-04</internalNodes>
          <leafValues>
            -8.8967782258987427e-01 2.4633702635765076e-01</leafValues></_>
        <_>
          <internalNodes>
            0 -1 4 2.0603924989700317e-02</internalNodes>
          <leafValues>
            -3.4777042269706726e-01 5.7302564382553101e-01</leafValues></_></weakClassifiers></_>
    <!-- stage 1 -->
    <_>
      <maxWeakCount>6</maxWeakCount>
      <stageThreshold>-3.5680821537971497e-01</stageThreshold>
      <weakClassifiers>
        <_>
          <internalNodes>
            0 -1 15 -2.9851333238184452e-03</internalNodes>
          <leafValues>
            7.0634919404983521e-01 -3.0180180072784424e-01</leafValues></_>
        <_>
          <internalNodes>
            0 -1 6 -1.6886759549379349e-03</internalNodes>
          <leafValues>
            3.8384518027305603e-01 -7.2235691547393799e-01</leafValues></_>
        <_>
          <internalNodes>
            0 -1 10 2.1540172747336328e-04</internalNodes>
          <leafValues>
            1.9748833775520325e-01 -9.0954118967056274e-01</leafValues></_>
        <_>
          <internalNodes>
            0 -1 0 -2.8639379888772964e-03</internalNodes>
          <leafValues>
            5.8622401952743530e-01 -3.5578730702400208e-01</leafValues></_>
        <_>
          <internalNodes>
            0 -1 3 -2.7540978044271469e-03</internalNodes>
          <leafValues>
            6.0246151685714722e-01 -3.2913172245025635e-01</leafValues></_>
        <_>
          <internalNodes>
            0 -1 12 2.3054701159708202e-04</internalNodes>
          <leafValues>
            2.2318793833255768e-01 -9.3832021951675415e-01</leafValues></_></weakClassifiers></_>
    <!-- stage 2 -->
    <_>
      <maxWeakCount>6</maxWeakCount>
      <stageThreshold>-1.3671779632568359e+00</stageThreshold>
      <weakClassifiers>
        <_>
          <internalNodes>
            0 -1 16 -1.5572146512567997e-03</internalNodes>
          <leafValues>
            7.6177287101745605e-01 -3.1380751729011536e-01</leafValues></_>
        <_>
          <internalNodes>
            0 -1 2 -3.6299754865467548e-03</internalNodes>
          <leafValues>
            7.2829765081405640e-01 -3.0256745219230652e-01</leafValues></_>
        <_>
          <internalNodes>
            0 -1 7 -1.8203040235675871e-04</internalNodes>
          <leafValues>
            5.3679049015045166e-01 -4.8661774396896362e-01</leafValues></_>
        <_>
          <internalNodes>
            0 -1 1 -1.6464288346469402e-03</internalNodes>
          <leafValues>
            5.7228422164916992e-01 -4.3967670202255249e-01</leafValues></_>
        <_>
          <internalNodes>
            0 -1 14 -2.2044759243726730e-03</internalNodes>
          <leafValues>
            4.5626810193061829e-01 -4.9801978468894958e-01</leafValues></_>
        <_>
          <internalNodes>
            0 -1 8 -9.2614354798570275e-04</internalNodes>
          <leafValues>
            6.8644642829895020e-01 -3.5735383629798889e-01</leafValues></_></weakClassifiers></_></stages>
  <features>
    <_>
      <rects>
        <_>
          0 14 4 18 -1.</_>
        <_>
          0 14 2 9 2.</_>
        <_>
          2 23 2 9 2.</_></rects>
      <tilted>0</tilted></_>
    <_>
      <rects>
        <_>
          2 13 6 10 -1.</_>
        <_>
          5 13 3 10 2.</_></rects>
      <tilted>0</tilted></_>
    <_>
      <rects>
        <_>
          9 6 10 9 -1.</_>
        <_>
          9 9 10 3 3.</_></rects>
      <tilted>0</tilted></_>
    <_>
      <rects>
        <_>
          12 6 3 8 -1.</_>
        <_>
          12 10 3 4 2.</_></rects>
      <tilted>0</tilted></_>
    <_>
      <rects>
        <_>
          12 37 21 12 -1.</_>
        <_>
          12 43 21 6 2.</_></rects>
      <tilted>0</tilted></_>
    <_>
      <rects>
        <_>
          16 6 12 4 -1.</_>
        <_>
          16 6 6 2 2.</_>
        <_>
          22 8 6 2 2.</_></rects>
      <tilted>0</tilted></_>
    <_>
      <rects>
        <_>
          16 30 13 10 -1.</_>
        <_>
          16 35 13 5 2.</_></rects>
      <tilted>0</tilted></_>
    <_>
      <rects>
        <_>
          19 33 1 4 -1.</_>
        <_>
          19 35 1 2 2.</_></rects>
      <tilted>0</tilted></_>
    <_>
      <rects>
        <_>
          20 11 1 8 -1.</_>
        <_>
          20 15 1 4 2.</_></rects>
      <tilted>0</tilted></_>
    <_>
      <rects>
        <_>
          20 31 3 10 -1.</_>
        <_>
          20 36 3 5 2.</_></rects>
      <tilted>0</tilted></_>
    <_>
      <rects>
        <_>
          22 29 2 4 -1.</_>
        <_>
          23 29 1 4 2.</_></rects>
      <tilted>0</tilted></_>
    <_>
      <rects>
        <_>
          23 8 5 8 -1.</_>
        <_>
          23 12 5 4 2.</_></rects>
      <tilted>0</tilted></_>
    <_>
      <rects>
        <_>
          23 30 2 4 -1.</_>
        <_>
          24 30 1 4 2.</_></rects>
      <tilted>0</tilted></_>
    <_>
      <rects>
        <_>
          23 31 4 3 -1.</_>
        <_>
          23 32 4 1 3.</_></rects>
      <tilted>0</tilted></_>
    <_>
      <rects>
        <_>
          24 8 5 6 -1.</_>
        <_>
          24 11 5 3 2.</_></rects>
      <tilted>0</tilted></_>
    <_>
      <rects>
        <_>
          24 9 6 6 -1.</_>
        <_>
          24 12 6 3 2.</_></rects>
      <tilted>0</tilted></_>
    <_>
      <rects>
        <_>
          24 10 3 6 -1.</_>
        <_>
          24 13 3 3 2.</_></rects>
      <tilted>0</tilted></_></features></cascade>
</opencv_storage>
